<?xml version="1.0"?>
<opencv_storage>
<cascade>
  <stageType>BOOST</stageType>
  <featureType>HAAR</featureType>
  <height>20</height>
  <width>20</width>
  <stageParams>
    <boostType>GAB</boostType>
    <minHitRate>9.9500000476837158e-01</minHitRate>
    <maxFalseAlarm>5.0000000000000000e-01</maxFalseAlarm>
    <weightTrimRate>9.4999999999999996e-01</weightTrimRate>
    <maxDepth>1</maxDepth>
    <maxWeakCount>100</maxWeakCount></stageParams>
  <featureParams>
    <maxCatCount>0</maxCatCount>
    <featSize>1</featSize>
    <mode>BASIC</mode></featureParams>
  <stageNum>10</stageNum>
  <stages>
    <!-- stage 0 -->
    <_>
      <maxWeakCount>12</maxWeakCount>
      <stageThreshold>-1.2189285755157471e+00</stageThreshold>
      <weakClassifiers>
        <_>
          <internalNodes>
            0 -1 90 1.1597882956266403e-02</internalNodes>
          <leafValues>
            -4.7934824228286743e-01 8.3120203018188477e-01</leafValues></_>
        <_>
          <internalNodes>
            0 -1 52 -7.4240088462829590e-02</internalNodes>
          <leafValues>
            9.5282077789306641e-01 -1.6913798451423645e-01</leafValues></_>
        <_>
          <internalNodes>
            0 -1 91 9.5070441602729261e-05</internalNodes>
          <leafValues>
            -1.7098309099674225e-01 4.9422925710678101e-01</leafValues></_>
        <_>
          <internalNodes>
            0 -1 91 -1.8284120596945286e-04</internalNodes>
          <leafValues>
            6.1813360452651978e-01 -2.3178572952747345e-01</leafValues></_>
        <_>
          <internalNodes>
            0 -1 149 -1.3309187488630414e-04</internalNodes>
          <leafValues>
            5.6652486324310303e-01 -8.7942883372306824e-02</leafValues></_>
        <_>
          <internalNodes>
            0 -1 150 4.1522900573909283e-05</internalNodes>
          <leafValues>
            -2.4170497059822083e-01 3.9204668998718262e-01</leafValues></_>
        <_>
          <internalNodes>
            0 -1 133 -6.3965935260057449e-03</internalNodes>
          <leafValues>
            6.3752263784408569e-01 -1.1106611788272858e-01</leafValues></_>
        <_>
          <internalNodes>
            0 -1 116 -4.6716999262571335e-02</internalNodes>
          <leafValues>
            6.5297681093215942e-01 -1.2078200280666351e-01</leafValues></_>
        <_>
          <internalNodes>
            0 -1 166 5.1362477242946625e-03</internalNodes>
          <leafValues>
            1.0990998893976212e-01 -7.7811115980148315e-01</leafValues></_>
        <_>
          <internalNodes>
            0 -1 40 5.1499938126653433e-04</internalNodes>
          <leafValues>
            -2.8780034184455872e-01 2.6241526007652283e-01</leafValues></_>
        <_>
          <internalNodes>
            0 -1 106 -1.8836310482583940e-04</internalNodes>
          <leafValues>
            3.1260567903518677e-01 -2.1169063448905945e-01</leafValues></_>
        <_>
          <internalNodes>
            0 -1 43 -2.7921935543417931e-03</internalNodes>
          <leafValues>
            -6.1459147930145264e-01 1.2893563508987427e-01</leafValues></_></weakClassifiers></_>
    <!-- stage 1 -->
    <_>
      <maxWeakCount>15</maxWeakCount>
      <stageThreshold>-1.1242333650588989e+00</stageThreshold>
      <weakClassifiers>
        <_>
          <internalNodes>
            0 -1 36 1.8428586423397064e-02</internalNodes>
          <leafValues>
            -4.6516853570938110e-01 8.3888888359069824e-01</leafValues></_>
        <_>
          <internalNodes>
            0 -1 7 -9.6066936850547791e-02</internalNodes>
          <leafValues>
            8.8454598188400269e-01 -1.8170827627182007e-01</leafValues></_>
        <_>
          <internalNodes>
            0 -1 115 5.3388621658086777e-02</internalNodes>
          <leafValues>
            -4.8170614987611771e-02 8.2441455125808716e-01</leafValues></_>
        <_>
          <internalNodes>
            0 -1 84 7.1117736399173737e-02</internalNodes>
          <leafValues>
            -9.4774395227432251e-02 7.2553372383117676e-01</leafValues></_>
        <_>
          <internalNodes>
            0 -1 15 -4.9040643498301506e-03</internalNodes>
          <leafValues>
            -6.1226546764373779e-01 1.0680495202541351e-01</leafValues></_>
        <_>
          <internalNodes>
            0 -1 170 -1.3028112240135670e-02</internalNodes>
          <leafValues>
            3.6812639236450195e-01 -1.6268485784530640e-01</leafValues></_>
        <_>
          <internalNodes>
            0 -1 167 -1.3364301412366331e-04</internalNodes>
          <leafValues>
            4.2277166247367859e-01 -1.0566617548465729e-01</leafValues></_>
        <_>
          <internalNodes>
            0 -1 59 1.7168215708807111e-04</internalNodes>
          <leafValues>
            -2.0185838639736176e-01 3.4311518073081970e-01</leafValues></_>
        <_>
          <internalNodes>
            0 -1 20 -6.1105364002287388e-03</internalNodes>
          <leafValues>
            3.9491862058639526e-01 -1.6054530441761017e-01</leafValues></_>
        <_>
          <internalNodes>
            0 -1 111 -1.1020044621545821e-04</internalNodes>
          <leafValues>
            2.5360926985740662e-01 -2.1740058064460754e-01</leafValues></_>
        <_>
          <internalNodes>
            0 -1 179 7.6811574399471283e-04</internalNodes>
          <leafValues>
            6.4763240516185760e-02 -7.5291717052459717e-01</leafValues></_>
        <_>
          <internalNodes>
            0 -1 107 4.5991707593202591e-03</internalNodes>
          <leafValues>
            6.2599293887615204e-02 -8.3801245689392090e-01</leafValues></_>
        <_>
          <internalNodes>
            0 -1 9 1.0476246825419366e-04</internalNodes>
          <leafValues>
            1.8572846055030823e-01 -2.9717937111854553e-01</leafValues></_>
        <_>
          <internalNodes>
            0 -1 110 -1.1906081810593605e-02</internalNodes>
          <leafValues>
            6.2552142143249512e-01 -8.9109562337398529e-02</leafValues></_>
        <_>
          <internalNodes>
            0 -1 144 8.0473699199501425e-05</internalNodes>
          <leafValues>
            -2.0671993494033813e-01 2.5187045335769653e-01</leafValues></_></weakClassifiers></_>
    <!-- stage 2 -->
    <_>
      <maxWeakCount>18</maxWeakCount>
      <stageThreshold>-1.1720517873764038e+00</stageThreshold>
      <weakClassifiers>
        <_>
          <internalNodes>
            0 -1 73 1.7891375347971916e-02</internalNodes>
          <leafValues>
            -4.6972545981407166e-01 8.3288407325744629e-01</leafValues></_>
        <_>
          <internalNodes>
            0 -1 66 3.5411313176155090e-02</internalNodes>
          <leafValues>
            -1.7787131667137146e-01 8.9333111047744751e-01</leafValues></_>
        <_>
          <internalNodes>
            0 -1 44 -1.1636359617114067e-02</internalNodes>
          <leafValues>
            6.8496280908584595e-01 -6.7141726613044739e-02</leafValues></_>
        <_>
          <internalNodes>
            0 -1 50 -7.0765567943453789e-04</internalNodes>
          <leafValues>
            4.5118939876556396e-01 -1.4011836051940918e-01</leafValues></_>
        <_>
          <internalNodes>
            0 -1 72 7.0562650216743350e-04</internalNodes>
          <leafValues>
            -1.2355736643075943e-01 3.9351102709770203e-01</leafValues></_>
        <_>
          <internalNodes>
            0 -1 146 1.4993075747042894e-03</internalNodes>
          <leafValues>
            1.2432769685983658e-01 -4.3348941206932068e-01</leafValues></_>
        <_>
          <internalNodes>
            0 -1 75 2.7324251830577850e-02</internalNodes>
          <leafValues>
            -3.9620179682970047e-02 9.7776693105697632e-01</leafValues></_>
        <_>
          <internalNodes>
            0 -1 113 -2.3116508498787880e-02</internalNodes>
          <leafValues>
            4.7274267673492432e-01 -9.8886765539646149e-02</leafValues></_>
        <_>
          <internalNodes>
            0 -1 1 -3.4745712764561176e-04</internalNodes>
          <leafValues>
            2.6803290843963623e-01 -2.0049534738063812e-01</leafValues></_>
        <_>
          <internalNodes>
            0 -1 16 -3.4155168104916811e-03</internalNodes>
          <leafValues>
            -6.8161725997924805e-01 8.1456154584884644e-02</leafValues></_>
        <_>
          <internalNodes>
            0 -1 156 4.7267001355066895e-04</internalNodes>
          <leafValues>
            -1.9586572051048279e-01 2.5639912486076355e-01</leafValues></_>
        <_>
          <internalNodes>
            0 -1 95 -2.3695328854955733e-04</internalNodes>
          <leafValues>
            3.7021163105964661e-01 -1.5212982892990112e-01</leafValues></_>
        <_>
          <internalNodes>
            0 -1 140 1.2896668165922165e-02</internalNodes>
          <leafValues>
            -7.4457757174968719e-02 7.2208845615386963e-01</leafValues></_>
        <_>
          <internalNodes>
            0 -1 145 1.9178583752363920e-03</internalNodes>
          <leafValues>
            1.1387496441602707e-01 -5.1684916019439697e-01</leafValues></_>
        <_>
          <internalNodes>
            0 -1 83 -7.8367099165916443e-02</internalNodes>
          <leafValues>
            -7.1743339300155640e-01 6.5158337354660034e-02</leafValues></_>
        <_>
          <internalNodes>
            0 -1 124 -3.2281153835356236e-03</internalNodes>
          <leafValues>
            3.1425544619560242e-01 -1.5247063338756561e-01</leafValues></_>
        <_>
          <internalNodes>
            0 -1 138 7.0305797271430492e-04</internalNodes>
          <leafValues>
            1.6183829307556152e-01 -3.1756106019020081e-01</leafValues></_>
        <_>
          <internalNodes>
            0 -1 153 8.2402693806216121e-05</internalNodes>
          <leafValues>
            -1.9369740784168243e-01 2.6292207837104797e-01</leafValues></_></weakClassifiers></_>
    <!-- stage 3 -->
    <_>
      <maxWeakCount>19</maxWeakCount>
      <stageThreshold>-1.3570708036422729e+00</stageThreshold>
      <weakClassifiers>
        <_>
          <internalNodes>
            0 -1 74 4.5115504413843155e-02</internalNodes>
          <leafValues>
            -4.5873606204986572e-01 8.6470586061477661e-01</leafValues></_>
        <_>
          <internalNodes>
            0 -1 52 -7.7051967382431030e-02</internalNodes>
          <leafValues>
            8.7937927246093750e-01 -1.7500269412994385e-01</leafValues></_>
        <_>
          <internalNodes>
            0 -1 88 -8.4191968198865652e-04</internalNodes>
          <leafValues>
            6.1118829250335693e-01 -9.1078177094459534e-02</leafValues></_>
        <_>
          <internalNodes>
            0 -1 68 -2.4328292347490788e-03</internalNodes>
          <leafValues>
            3.9429247379302979e-01 -1.8207858502864838e-01</leafValues></_>
        <_>
          <internalNodes>
            0 -1 62 -4.3093711137771606e-02</internalNodes>
          <leafValues>
            5.1128023862838745e-01 -1.0156108438968658e-01</leafValues></_>
        <_>
          <internalNodes>
            0 -1 114 2.6083618402481079e-02</internalNodes>
          <leafValues>
            -4.1297711431980133e-02 7.4643021821975708e-01</leafValues></_>
        <_>
          <internalNodes>
            0 -1 21 -2.5499481707811356e-03</internalNodes>
          <leafValues>
            -4.9861252307891846e-01 1.1598699539899826e-01</leafValues></_>
        <_>
          <internalNodes>
            0 -1 22 4.4092146708862856e-05</internalNodes>
          <leafValues>
            -1.2839564681053162e-01 3.2937669754028320e-01</leafValues></_>
        <_>
          <internalNodes>
            0 -1 19 9.9838655441999435e-03</internalNodes>
          <leafValues>
            -1.2075310945510864e-01 4.7320738434791565e-01</leafValues></_>
        <_>
          <internalNodes>
            0 -1 143 9.7670522518455982e-04</internalNodes>
          <leafValues>
            -1.1313511431217194e-01 4.6719717979431152e-01</leafValues></_>
        <_>
          <internalNodes>
            0 -1 0 2.6590512134134769e-03</internalNodes>
          <leafValues>
            8.0116435885429382e-02 -6.8366104364395142e-01</leafValues></_>
        <_>
          <internalNodes>
            0 -1 102 -5.5131368339061737e-02</internalNodes>
          <leafValues>
            6.3135886192321777e-01 -8.5318773984909058e-02</leafValues></_>
        <_>
          <internalNodes>
            0 -1 148 -8.0846526543609798e-05</internalNodes>
          <leafValues>
            3.3359754085540771e-01 -1.8592859804630280e-01</leafValues></_>
        <_>
          <internalNodes>
            0 -1 80 -1.9006455549970269e-03</internalNodes>
          <leafValues>
            -5.8414924144744873e-01 1.0209958255290985e-01</leafValues></_>
        <_>
          <internalNodes>
            0 -1 120 2.5753106456249952e-04</internalNodes>
          <leafValues>
            -1.4971299469470978e-01 3.4085732698440552e-01</leafValues></_>
        <_>
          <internalNodes>
            0 -1 151 3.3090461045503616e-02</internalNodes>
          <leafValues>
            1.1349746584892273e-01 -4.1435620188713074e-01</leafValues></_>
        <_>
          <internalNodes>
            0 -1 10 5.4160703439265490e-04</internalNodes>
          <leafValues>
            -2.1457302570343018e-01 2.4838672578334808e-01</leafValues></_>
        <_>
          <internalNodes>
            0 -1 76 8.0514012370258570e-04</internalNodes>
          <leafValues>
            -1.6945959627628326e-01 2.8911828994750977e-01</leafValues></_>
        <_>
          <internalNodes>
            0 -1 97 9.7974296659231186e-03</internalNodes>
          <leafValues>
            -8.0806672573089600e-02 6.4142793416976929e-01</leafValues></_></weakClassifiers></_>
    <!-- stage 4 -->
    <_>
      <maxWeakCount>17</maxWeakCount>
      <stageThreshold>-1.1030281782150269e+00</stageThreshold>
      <weakClassifiers>
        <_>
          <internalNodes>
            0 -1 132 -3.7056118249893188e-02</internalNodes>
          <leafValues>
            9.1095888614654541e-01 -4.4046750664710999e-01</leafValues></_>
        <_>
          <internalNodes>
            0 -1 131 3.4013465046882629e-02</internalNodes>
          <leafValues>
            -2.1654109656810760e-01 8.6926347017288208e-01</leafValues></_>
        <_>
          <internalNodes>
            0 -1 100 7.2594638913869858e-04</internalNodes>
          <leafValues>
            -9.4399087131023407e-02 5.3898859024047852e-01</leafValues></_>
        <_>
          <internalNodes>
            0 -1 134 -6.6866558045148849e-03</internalNodes>
          <leafValues>
            -5.0831037759780884e-01 9.1666728258132935e-02</leafValues></_>
        <_>
          <internalNodes>
            0 -1 47 7.9966671764850616e-02</internalNodes>
          <leafValues>
            -5.3425110876560211e-02 8.0802267789840698e-01</leafValues></_>
        <_>
          <internalNodes>
            0 -1 49 -4.4408373534679413e-02</internalNodes>
          <leafValues>
            7.8706777095794678e-01 -5.9400908648967743e-02</leafValues></_>
        <_>
          <internalNodes>
            0 -1 171 2.7138908626511693e-04</internalNodes>
          <leafValues>
            -1.8376834690570831e-01 2.9815012216567993e-01</leafValues></_>
        <_>
          <internalNodes>
            0 -1 89 4.5674061402678490e-03</internalNodes>
          <leafValues>
            2.0009410381317139e-01 -2.6285195350646973e-01</leafValues></_>
        <_>
          <internalNodes>
            0 -1 37 1.2776046991348267e-02</internalNodes>
          <leafValues>
            -1.3424101471900940e-01 4.4962087273597717e-01</leafValues></_>
        <_>
          <internalNodes>
            0 -1 27 -6.5194189548492432e-02</internalNodes>
          <leafValues>
            -2.8831741213798523e-01 1.9263000786304474e-01</leafValues></_>
        <_>
          <internalNodes>
            0 -1 174 9.2770555056631565e-05</internalNodes>
          <leafValues>
            -1.6541318595409393e-01 3.2683157920837402e-01</leafValues></_>
        <_>
          <internalNodes>
            0 -1 60 -3.8343967753462493e-04</internalNodes>
          <leafValues>
            2.5172424316406250e-01 -1.9228126108646393e-01</leafValues></_>
        <_>
          <internalNodes>
            0 -1 125 -1.9648480520118028e-04</internalNodes>
          <leafValues>
            2.3974202573299408e-01 -2.0061323046684265e-01</leafValues></_>
        <_>
          <internalNodes>
            0 -1 121 1.1152251390740275e-03</internalNodes>
          <leafValues>
            -1.5424768626689911e-01 3.2566967606544495e-01</leafValues></_>
        <_>
          <internalNodes>
            0 -1 13 1.3384674675762653e-03</internalNodes>
          <leafValues>
            1.4796359837055206e-01 -3.3570703864097595e-01</leafValues></_>
        <_>
          <internalNodes>
            0 -1 109 -6.2650460749864578e-03</internalNodes>
          <leafValues>
            7.4643576145172119e-01 -6.1589825898408890e-02</leafValues></_>
        <_>
          <internalNodes>
            0 -1 78 1.4251272659748793e-04</internalNodes>
          <leafValues>
            -1.8430253863334656e-01 2.6335003972053528e-01</leafValues></_></weakClassifiers></_>
    <!-- stage 5 -->
    <_>
      <maxWeakCount>18</maxWeakCount>
      <stageThreshold>-1.0871440172195435e+00</stageThreshold>
      <weakClassifiers>
        <_>
          <internalNodes>
            0 -1 132 -3.7779450416564941e-02</internalNodes>
          <leafValues>
            9.2334496974945068e-01 -4.3930003046989441e-01</leafValues></_>
        <_>
          <internalNodes>
            0 -1 63 3.9206206798553467e-02</internalNodes>
          <leafValues>
            -2.2382761538028717e-01 8.1589037179946899e-01</leafValues></_>
        <_>
          <internalNodes>
            0 -1 55 -7.7310185879468918e-03</internalNodes>
          <leafValues>
            7.8800678253173828e-01 -2.6166103780269623e-02</leafValues></_>
        <_>
          <internalNodes>
            0 -1 25 -5.7302709668874741e-02</internalNodes>
          <leafValues>
            8.7953627109527588e-01 -5.5704217404127121e-02</leafValues></_>
        <_>
          <internalNodes>
            0 -1 99 -6.9988187169656157e-04</internalNodes>
          <leafValues>
            3.1837496161460876e-01 -1.4725953340530396e-01</leafValues></_>
        <_>
          <internalNodes>
            0 -1 3 -9.1056182980537415e-02</internalNodes>
          <leafValues>
            -6.3683259487152100e-01 8.1325851380825043e-02</leafValues></_>
        <_>
          <internalNodes>
            0 -1 105 -2.1240525529719889e-04</internalNodes>
          <leafValues>
            4.1609343886375427e-01 -1.0117286443710327e-01</leafValues></_>
        <_>
          <internalNodes>
            0 -1 164 -9.4032482593320310e-05</internalNodes>
          <leafValues>
            3.1366503238677979e-01 -1.7361295223236084e-01</leafValues></_>
        <_>
          <internalNodes>
            0 -1 87 5.3485050797462463e-02</internalNodes>
          <leafValues>
            -1.0386212170124054e-01 4.0448722243309021e-01</leafValues></_>
        <_>
          <internalNodes>
            0 -1 24 1.9867457449436188e-02</internalNodes>
          <leafValues>
            1.1505521088838577e-01 -4.1480410099029541e-01</leafValues></_>
        <_>
          <internalNodes>
            0 -1 130 1.9133475143462420e-03</internalNodes>
          <leafValues>
            7.0260360836982727e-02 -8.5239291191101074e-01</leafValues></_>
        <_>
          <internalNodes>
            0 -1 126 -1.4913327991962433e-02</internalNodes>
          <leafValues>
            6.3548767566680908e-01 -8.3103612065315247e-02</leafValues></_>
        <_>
          <internalNodes>
            0 -1 28 1.2356340885162354e-02</internalNodes>
          <leafValues>
            -1.2142584472894669e-01 3.9889091253280640e-01</leafValues></_>
        <_>
          <internalNodes>
            0 -1 165 -3.3148096408694983e-03</internalNodes>
          <leafValues>
            -6.4597105979919434e-01 7.8496217727661133e-02</leafValues></_>
        <_>
          <internalNodes>
            0 -1 48 -8.8429953902959824e-03</internalNodes>
          <leafValues>
            6.4106732606887817e-01 -7.5689189136028290e-02</leafValues></_>
        <_>
          <internalNodes>
            0 -1 11 5.4285898804664612e-03</internalNodes>
          <leafValues>
            2.1522146463394165e-01 -1.9680599868297577e-01</leafValues></_>
        <_>
          <internalNodes>
            0 -1 34 -1.1212369799613953e-01</internalNodes>
          <leafValues>
            -6.1998194456100464e-01 7.3556616902351379e-02</leafValues></_>
        <_>
          <internalNodes>
            0 -1 108 -1.9390121451579034e-04</internalNodes>
          <leafValues>
            2.4209180474281311e-01 -1.8065837025642395e-01</leafValues></_></weakClassifiers></_>
    <!-- stage 6 -->
    <_>
      <maxWeakCount>21</maxWeakCount>
      <stageThreshold>-1.2895029783248901e+00</stageThreshold>
      <weakClassifiers>
        <_>
          <internalNodes>
            0 -1 69 3.3492296934127808e-02</internalNodes>
          <leafValues>
            -4.4644829630851746e-01 8.7220448255538940e-01</leafValues></_>
        <_>
          <internalNodes>
            0 -1 117 4.3313242495059967e-02</internalNodes>
          <leafValues>
            -2.2473533451557159e-01 7.7294898033142090e-01</leafValues></_>
        <_>
          <internalNodes>
            0 -1 56 8.2311104051768780e-04</internalNodes>
          <leafValues>
            -6.9633111357688904e-02 5.0810289382934570e-01</leafValues></_>
        <_>
          <internalNodes>
            0 -1 119 -3.2046224921941757e-02</internalNodes>
          <leafValues>
            6.1613869667053223e-01 -1.5543645620346069e-01</leafValues></_>
        <_>
          <internalNodes>
            0 -1 35 -9.4720024208072573e-05</internalNodes>
          <leafValues>
            3.6824196577072144e-01 -1.5843692421913147e-01</leafValues></_>
        <_>
          <internalNodes>
            0 -1 104 9.6255689859390259e-03</internalNodes>
          <leafValues>
            -9.8367594182491302e-02 5.6956130266189575e-01</leafValues></_>
        <_>
          <internalNodes>
            0 -1 17 -6.0576358810067177e-03</internalNodes>
          <leafValues>
            -5.2344721555709839e-01 1.1228845268487930e-01</leafValues></_>
        <_>
          <internalNodes>
            0 -1 135 -3.8963299244642258e-02</internalNodes>
          <leafValues>
            7.1454471349716187e-01 -7.3088042438030243e-02</leafValues></_>
        <_>
          <internalNodes>
            0 -1 30 2.4711351841688156e-02</internalNodes>
          <leafValues>
            -1.4806517958641052e-01 3.1317180395126343e-01</leafValues></_>
        <_>
          <internalNodes>
            0 -1 169 -1.6698993276804686e-03</internalNodes>
          <leafValues>
            -3.9700961112976074e-01 1.1356165260076523e-01</leafValues></_>
        <_>
          <internalNodes>
            0 -1 122 1.2528849765658379e-03</internalNodes>
          <leafValues>
            -1.3449892401695251e-01 3.5850271582603455e-01</leafValues></_>
        <_>
          <internalNodes>
            0 -1 101 -3.6218846216797829e-03</internalNodes>
          <leafValues>
            -5.0976383686065674e-01 1.0904122143983841e-01</leafValues></_>
        <_>
          <internalNodes>
            0 -1 32 1.2554681301116943e-01</internalNodes>
          <leafValues>
            6.1506714671850204e-02 -7.1610373258590698e-01</leafValues></_>
        <_>
          <internalNodes>
            0 -1 29 -4.5783221721649170e-03</internalNodes>
          <leafValues>
            -5.7199895381927490e-01 7.7649310231208801e-02</leafValues></_>
        <_>
          <internalNodes>
            0 -1 173 -4.1586568841012195e-05</internalNodes>
          <leafValues>
            3.1425398588180542e-01 -1.6282613575458527e-01</leafValues></_>
        <_>
          <internalNodes>
            0 -1 154 2.9045625706203282e-04</internalNodes>
          <leafValues>
            -1.9983157515525818e-01 2.4995151162147522e-01</leafValues></_>
        <_>
          <internalNodes>
            0 -1 157 -4.4585605792235583e-05</internalNodes>
          <leafValues>
            4.3525135517120361e-01 -1.0275005549192429e-01</leafValues></_>
        <_>
          <internalNodes>
            0 -1 4 5.8680633082985878e-04</internalNodes>
          <leafValues>
            1.6579076647758484e-01 -2.8119817376136780e-01</leafValues></_>
        <_>
          <internalNodes>
            0 -1 45 -4.4585605792235583e-05</internalNodes>
          <leafValues>
            4.1691139340400696e-01 -1.0759438574314117e-01</leafValues></_>
        <_>
          <internalNodes>
            0 -1 38 -2.0217704586684704e-03</internalNodes>
          <leafValues>
            -7.4796730279922485e-01 6.9312006235122681e-02</leafValues></_>
        <_>
          <internalNodes>
            0 -1 175 -2.7006184682250023e-03</internalNodes>
          <leafValues>
            -6.0615688562393188e-01 6.8810820579528809e-02</leafValues></_></weakClassifiers></_>
    <!-- stage 7 -->
    <_>
      <maxWeakCount>20</maxWeakCount>
      <stageThreshold>-1.1233379840850830e+00</stageThreshold>
      <weakClassifiers>
        <_>
          <internalNodes>
            0 -1 57 4.7717113047838211e-02</internalNodes>
          <leafValues>
            -4.4002917408943176e-01 9.3031358718872070e-01</leafValues></_>
        <_>
          <internalNodes>
            0 -1 6 -1.1727282404899597e-01</internalNodes>
          <leafValues>
            8.2745760679244995e-01 -2.1753782033920288e-01</leafValues></_>
        <_>
          <internalNodes>
            0 -1 54 5.6561334058642387e-03</internalNodes>
          <leafValues>
            -7.1891606785356998e-03 7.7810370922088623e-01</leafValues></_>
        <_>
          <internalNodes>
            0 -1 158 -4.9658175557851791e-03</internalNodes>
          <leafValues>
            4.9194863438606262e-01 -1.2948784232139587e-01</leafValues></_>
        <_>
          <internalNodes>
            0 -1 39 4.9464274197816849e-03</internalNodes>
          <leafValues>
            6.4444512128829956e-02 -7.7456611394882202e-01</leafValues></_>
        <_>
          <internalNodes>
            0 -1 77 -1.4637582004070282e-02</internalNodes>
          <leafValues>
            5.9667021036148071e-01 -6.7557215690612793e-02</leafValues></_>
        <_>
          <internalNodes>
            0 -1 142 -4.7214690130203962e-04</internalNodes>
          <leafValues>
            2.9003113508224487e-01 -1.7602853477001190e-01</leafValues></_>
        <_>
          <internalNodes>
            0 -1 178 -8.8581356976646930e-05</internalNodes>
          <leafValues>
            3.4169477224349976e-01 -1.3598267734050751e-01</leafValues></_>
        <_>
          <internalNodes>
            0 -1 127 -3.8503089454025030e-03</internalNodes>
          <leafValues>
            -8.4841454029083252e-01 5.6509330868721008e-02</leafValues></_>
        <_>
          <internalNodes>
            0 -1 23 2.6604101061820984e-02</internalNodes>
          <leafValues>
            4.6029988676309586e-02 -1.</leafValues></_>
        <_>
          <internalNodes>
            0 -1 18 -1.6441743820905685e-02</internalNodes>
          <leafValues>
            4.3266355991363525e-01 -9.9996365606784821e-02</leafValues></_>
        <_>
          <internalNodes>
            0 -1 8 -2.7030501514673233e-03</internalNodes>
          <leafValues>
            -4.9787235260009766e-01 8.8527008891105652e-02</leafValues></_>
        <_>
          <internalNodes>
            0 -1 71 1.6063952352851629e-03</internalNodes>
          <leafValues>
            -1.6270907223224640e-01 2.6218917965888977e-01</leafValues></_>
        <_>
          <internalNodes>
            0 -1 177 2.5716628879308701e-03</internalNodes>
          <leafValues>
            1.1851951479911804e-01 -4.0246298909187317e-01</leafValues></_>
        <_>
          <internalNodes>
            0 -1 33 -8.9868961367756128e-04</internalNodes>
          <leafValues>
            2.1147702634334564e-01 -2.1650128066539764e-01</leafValues></_>
        <_>
          <internalNodes>
            0 -1 94 8.4341876208782196e-03</internalNodes>
          <leafValues>
            -1.5746754407882690e-01 3.8114392757415771e-01</leafValues></_>
        <_>
          <internalNodes>
            0 -1 141 6.7155435681343079e-04</internalNodes>
          <leafValues>
            -1.2333685159683228e-01 3.8869446516036987e-01</leafValues></_>
        <_>
          <internalNodes>
            0 -1 79 3.4247222356498241e-03</internalNodes>
          <leafValues>
            6.8645395338535309e-02 -7.6587748527526855e-01</leafValues></_>
        <_>
          <internalNodes>
            0 -1 26 -2.9730845708400011e-03</internalNodes>
          <leafValues>
            -6.2209612131118774e-01 6.0935191810131073e-02</leafValues></_>
        <_>
          <internalNodes>
            0 -1 103 2.0551364868879318e-03</internalNodes>
          <leafValues>
            -1.1139722168445587e-01 4.6391260623931885e-01</leafValues></_></weakClassifiers></_>
    <!-- stage 8 -->
    <_>
      <maxWeakCount>23</maxWeakCount>
      <stageThreshold>-1.0812265872955322e+00</stageThreshold>
      <weakClassifiers>
        <_>
          <internalNodes>
            0 -1 86 1.6378195583820343e-01</internalNodes>
          <leafValues>
            -4.4305658340454102e-01 8.6363637447357178e-01</leafValues></_>
        <_>
          <internalNodes>
            0 -1 42 -4.1492473334074020e-02</internalNodes>
          <leafValues>
            6.7691117525100708e-01 -2.5434017181396484e-01</leafValues></_>
        <_>
          <internalNodes>
            0 -1 118 4.1271578520536423e-03</internalNodes>
          <leafValues>
            -8.8703222572803497e-02 5.1249945163726807e-01</leafValues></_>
        <_>
          <internalNodes>
            0 -1 81 -1.0135443508625031e-01</internalNodes>
          <leafValues>
            9.8357093334197998e-01 -7.6510444283485413e-02</leafValues></_>
        <_>
          <internalNodes>
            0 -1 139 9.4514209195040166e-05</internalNodes>
          <leafValues>
            -1.2772686779499054e-01 3.8911616802215576e-01</leafValues></_>
        <_>
          <internalNodes>
            0 -1 70 7.0436030626296997e-02</internalNodes>
          <leafValues>
            3.9361897855997086e-02 -8.3087283372879028e-01</leafValues></_>
        <_>
          <internalNodes>
            0 -1 85 1.3225361471995711e-03</internalNodes>
          <leafValues>
            -1.2964014708995819e-01 3.4195187687873840e-01</leafValues></_>
        <_>
          <internalNodes>
            0 -1 51 -7.0583977503702044e-04</internalNodes>
          <leafValues>
            3.4197577834129333e-01 -1.3137684762477875e-01</leafValues></_>
        <_>
          <internalNodes>
            0 -1 159 -7.4693849310278893e-03</internalNodes>
          <leafValues>
            -6.9668048620223999e-01 5.9283420443534851e-02</leafValues></_>
        <_>
          <internalNodes>
            0 -1 67 1.2994082644581795e-02</internalNodes>
          <leafValues>
            -4.8758566379547119e-02 8.1849974393844604e-01</leafValues></_>
        <_>
          <internalNodes>
            0 -1 64 -1.2346963584423065e-01</internalNodes>
          <leafValues>
            -5.3666210174560547e-01 8.2607932388782501e-02</leafValues></_>
        <_>
          <internalNodes>
            0 -1 96 -1.5453530941158533e-03</internalNodes>
          <leafValues>
            5.1167190074920654e-01 -8.5455834865570068e-02</leafValues></_>
        <_>
          <internalNodes>
            0 -1 93 -6.9283433258533478e-03</internalNodes>
          <leafValues>
            4.2606598138809204e-01 -1.1716403067111969e-01</leafValues></_>
        <_>
          <internalNodes>
            0 -1 128 -4.9013207899406552e-05</internalNodes>
          <leafValues>
            2.4715457856655121e-01 -1.8766510486602783e-01</leafValues></_>
        <_>
          <internalNodes>
            0 -1 46 1.0978630743920803e-03</internalNodes>
          <leafValues>
            8.3250395953655243e-02 -5.6339275836944580e-01</leafValues></_>
        <_>
          <internalNodes>
            0 -1 137 -6.5633738413453102e-03</internalNodes>
          <leafValues>
            -5.6198865175247192e-01 7.3436737060546875e-02</leafValues></_>
        <_>
          <internalNodes>
            0 -1 129 2.1230213344097137e-02</internalNodes>
          <leafValues>
            -1.1178079992532730e-01 4.2921769618988037e-01</leafValues></_>
        <_>
          <internalNodes>
            0 -1 53 -1.6043826937675476e-01</internalNodes>
          <leafValues>
            5.8658528327941895e-01 -7.1389734745025635e-02</leafValues></_>
        <_>
          <internalNodes>
            0 -1 58 -9.9314544349908829e-03</internalNodes>
          <leafValues>
            -7.7623212337493896e-01 5.3718134760856628e-02</leafValues></_>
        <_>
          <internalNodes>
            0 -1 147 3.5285796911921352e-05</internalNodes>
          <leafValues>
            -1.7737784981727600e-01 2.1715505421161652e-01</leafValues></_>
        <_>
          <internalNodes>
            0 -1 136 1.2166988104581833e-02</internalNodes>
          <leafValues>
            1.4137104153633118e-01 -3.0539608001708984e-01</leafValues></_>
        <_>
          <internalNodes>
            0 -1 160 -7.5732136610895395e-04</internalNodes>
          <leafValues>
            -3.3120366930961609e-01 1.5082456171512604e-01</leafValues></_>
        <_>
          <internalNodes>
            0 -1 163 -5.2688288269564509e-04</internalNodes>
          <leafValues>
            4.0194633603096008e-01 -1.3714167475700378e-01</leafValues></_></weakClassifiers></_>
    <!-- stage 9 -->
    <_>
      <maxWeakCount>20</maxWeakCount>
      <stageThreshold>-1.1850832700729370e+00</stageThreshold>
      <weakClassifiers>
        <_>
          <internalNodes>
            0 -1 92 6.2557421624660492e-03</internalNodes>
          <leafValues>
            -4.8586913943290710e-01 7.0469796657562256e-01</leafValues></_>
        <_>
          <internalNodes>
            0 -1 155 8.1569757312536240e-03</internalNodes>
          <leafValues>
            -1.4502954483032227e-01 7.1655035018920898e-01</leafValues></_>
        <_>
          <internalNodes>
            0 -1 98 1.6606388089712709e-04</internalNodes>
          <leafValues>
            -1.8322569131851196e-01 3.6727303266525269e-01</leafValues></_>
        <_>
          <internalNodes>
            0 -1 65 9.9169667810201645e-03</internalNodes>
          <leafValues>
            -9.3812756240367889e-02 8.6938476562500000e-01</leafValues></_>
        <_>
          <internalNodes>
            0 -1 162 -4.3777790851891041e-03</internalNodes>
          <leafValues>
            6.2750017642974854e-01 -6.9384507834911346e-02</leafValues></_>
        <_>
          <internalNodes>
            0 -1 82 4.0969714522361755e-02</internalNodes>
          <leafValues>
            -5.0290133804082870e-02 7.9011029005050659e-01</leafValues></_>
        <_>
          <internalNodes>
            0 -1 5 1.4922249317169189e-01</internalNodes>
          <leafValues>
            5.4609090089797974e-02 -9.6059930324554443e-01</leafValues></_>
        <_>
          <internalNodes>
            0 -1 152 -6.4979644957929850e-04</internalNodes>
          <leafValues>
            3.8911706209182739e-01 -1.1534547060728073e-01</leafValues></_>
        <_>
          <internalNodes>
            0 -1 176 -3.6745569668710232e-03</internalNodes>
          <leafValues>
            -5.7450127601623535e-01 8.2028396427631378e-02</leafValues></_>
        <_>
          <internalNodes>
            0 -1 172 -3.4733174834400415e-04</internalNodes>
          <leafValues>
            -3.3686459064483643e-01 1.6024428606033325e-01</leafValues></_>
        <_>
          <internalNodes>
            0 -1 168 -9.5271236205007881e-05</internalNodes>
          <leafValues>
            3.6368048191070557e-01 -1.1484697461128235e-01</leafValues></_>
        <_>
          <internalNodes>
            0 -1 2 3.2856019679456949e-03</internalNodes>
          <leafValues>
            5.8736171573400497e-02 -6.6135829687118530e-01</leafValues></_>
        <_>
          <internalNodes>
            0 -1 112 -9.6502166707068682e-04</internalNodes>
          <leafValues>
            2.6307904720306396e-01 -1.7336849868297577e-01</leafValues></_>
        <_>
          <internalNodes>
            0 -1 123 -2.1550789475440979e-02</internalNodes>
          <leafValues>
            8.3479237556457520e-01 -5.6420076638460159e-02</leafValues></_>
        <_>
          <internalNodes>
            0 -1 14 -4.7310537775047123e-04</internalNodes>
          <leafValues>
            3.2204458117485046e-01 -1.3599406182765961e-01</leafValues></_>
        <_>
          <internalNodes>
            0 -1 41 1.2313821166753769e-01</internalNodes>
          <leafValues>
            1.4594069123268127e-01 -3.3289420604705811e-01</leafValues></_>
        <_>
          <internalNodes>
            0 -1 12 7.7691003680229187e-02</internalNodes>
          <leafValues>
            -9.4420306384563446e-02 6.9395077228546143e-01</leafValues></_>
        <_>
          <internalNodes>
            0 -1 161 -2.0106933079659939e-03</internalNodes>
          <leafValues>
            -3.8373422622680664e-01 1.4887341856956482e-01</leafValues></_>
        <_>
          <internalNodes>
            0 -1 61 -2.7129350928589702e-04</internalNodes>
          <leafValues>
            2.5025820732116699e-01 -2.2411009669303894e-01</leafValues></_>
        <_>
          <internalNodes>
            0 -1 31 7.3059520218521357e-04</internalNodes>
          <leafValues>
            1.2739813327789307e-01 -4.4599038362503052e-01</leafValues></_></weakClassifiers></_></stages>
  <features>
    <_>
      <rects>
        <_>
          0 0 3 5 -1.</_>
        <_>
          1 0 1 5 3.</_></rects>
      <tilted>0</tilted></_>
    <_>
      <rects>
        <_>
          0 1 17 3 -1.</_>
        <_>
          0 2 17 1 3.</_></rects>
      <tilted>0</tilted></_>
    <_>
      <rects>
        <_>
          0 2 4 4 -1.</_>
        <_>
          0 2 2 2 2.</_>
        <_>
          2 4 2 2 2.</_></rects>
      <tilted>0</tilted></_>
    <_>
      <rects>
        <_>
          0 3 12 16 -1.</_>
        <_>
          0 3 6 8 2.</_>
        <_>
          6 11 6 8 2.</_></rects>
      <tilted>0</tilted></_>
    <_>
      <rects>
        <_>
          0 4 5 6 -1.</_>
        <_>
          0 6 5 2 3.</_></rects>
      <tilted>0</tilted></_>
    <_>
      <rects>
        <_>
          0 5 17 9 -1.</_>
        <_>
          0 8 17 3 3.</_></rects>
      <tilted>0</tilted></_>
    <_>
      <rects>
        <_>
          0 6 12 6 -1.</_>
        <_>
          4 6 4 6 3.</_></rects>
      <tilted>0</tilted></_>
    <_>
      <rects>
        <_>
          0 7 12 5 -1.</_>
        <_>
          4 7 4 5 3.</_></rects>
      <tilted>0</tilted></_>
    <_>
      <rects>
        <_>
          0 9 2 4 -1.</_>
        <_>
          0 11 2 2 2.</_></rects>
      <tilted>0</tilted></_>
    <_>
      <rects>
        <_>
          0 10 12 6 -1.</_>
        <_>
          0 12 12 2 3.</_></rects>
      <tilted>0</tilted></_>
    <_>
      <rects>
        <_>
          0 10 20 3 -1.</_>
        <_>
          0 11 20 1 3.</_></rects>
      <tilted>0</tilted></_>
    <_>
      <rects>
        <_>
          0 11 6 8 -1.</_>
        <_>
          3 11 3 8 2.</_></rects>
      <tilted>0</tilted></_>
    <_>
      <rects>
        <_>
          0 13 14 2 -1.</_>
        <_>
          7 13 7 2 2.</_></rects>
      <tilted>0</tilted></_>
    <_>
      <rects>
        <_>
          0 18 8 2 -1.</_>
        <_>
          0 19 8 1 2.</_></rects>
      <tilted>0</tilted></_>
    <_>
      <rects>
        <_>
          1 0 3 3 -1.</_>
        <_>
          2 0 1 3 3.</_></rects>
      <tilted>0</tilted></_>
    <_>
      <rects>
        <_>
          1 0 4 3 -1.</_>
        <_>
          1 1 4 1 3.</_></rects>
      <tilted>0</tilted></_>
    <_>
      <rects>
        <_>
          1 0 8 2 -1.</_>
        <_>
          1 0 4 1 2.</_>
        <_>
          5 1 4 1 2.</_></rects>
      <tilted>0</tilted></_>
    <_>
      <rects>
        <_>
          1 1 15 2 -1.</_>
        <_>
          1 2 15 1 2.</_></rects>
      <tilted>0</tilted></_>
    <_>
      <rects>
        <_>
          1 4 6 8 -1.</_>
        <_>
          1 4 3 4 2.</_>
        <_>
          4 8 3 4 2.</_></rects>
      <tilted>0</tilted></_>
    <_>
      <rects>
        <_>
          1 5 8 4 -1.</_>
        <_>
          1 5 4 2 2.</_>
        <_>
          5 7 4 2 2.</_></rects>
      <tilted>0</tilted></_>
    <_>
      <rects>
        <_>
          1 6 18 3 -1.</_>
        <_>
          1 7 18 1 3.</_></rects>
      <tilted>0</tilted></_>
    <_>
      <rects>
        <_>
          1 7 4 3 -1.</_>
        <_>
          1 8 4 1 3.</_></rects>
      <tilted>0</tilted></_>
    <_>
      <rects>
        <_>
          1 8 2 2 -1.</_>
        <_>
          2 8 1 2 2.</_></rects>
      <tilted>0</tilted></_>
    <_>
      <rects>
        <_>
          1 8 7 4 -1.</_>
        <_>
          1 10 7 2 2.</_></rects>
      <tilted>0</tilted></_>
    <_>
      <rects>
        <_>
          1 10 18 6 -1.</_>
        <_>
          1 10 9 3 2.</_>
        <_>
          10 13 9 3 2.</_></rects>
      <tilted>0</tilted></_>
    <_>
      <rects>
        <_>
          1 11 12 2 -1.</_>
        <_>
          5 11 4 2 3.</_></rects>
      <tilted>0</tilted></_>
    <_>
      <rects>
        <_>
          1 14 3 4 -1.</_>
        <_>
          2 14 1 4 3.</_></rects>
      <tilted>0</tilted></_>
    <_>
      <rects>
        <_>
          2 0 18 19 -1.</_>
        <_>
          8 0 6 19 3.</_></rects>
      <tilted>0</tilted></_>
    <_>
      <rects>
        <_>
          2 1 6 8 -1.</_>
        <_>
          2 1 3 4 2.</_>
        <_>
          5 5 3 4 2.</_></rects>
      <tilted>0</tilted></_>
    <_>
      <rects>
        <_>
          2 1 8 1 -1.</_>
        <_>
          6 1 4 1 2.</_></rects>
      <tilted>0</tilted></_>
    <_>
      <rects>
        <_>
          2 3 9 12 -1.</_>
        <_>
          5 3 3 12 3.</_></rects>
      <tilted>0</tilted></_>
    <_>
      <rects>
        <_>
          2 4 1 3 -1.</_>
        <_>
          2 5 1 1 3.</_></rects>
      <tilted>0</tilted></_>
    <_>
      <rects>
        <_>
          2 4 18 6 -1.</_>
        <_>
          8 4 6 6 3.</_></rects>
      <tilted>0</tilted></_>
    <_>
      <rects>
        <_>
          2 5 12 3 -1.</_>
        <_>
          2 6 12 1 3.</_></rects>
      <tilted>0</tilted></_>
    <_>
      <rects>
        <_>
          2 9 10 10 -1.</_>
        <_>
          7 9 5 10 2.</_></rects>
      <tilted>0</tilted></_>
    <_>
      <rects>
        <_>
          2 11 4 1 -1.</_>
        <_>
          4 11 2 1 2.</_></rects>
      <tilted>0</tilted></_>
    <_>
      <rects>
        <_>
          2 12 9 1 -1.</_>
        <_>
          5 12 3 1 3.</_></rects>
      <tilted>0</tilted></_>
    <_>
      <rects>
        <_>
          2 12 6 8 -1.</_>
        <_>
          2 12 3 4 2.</_>
        <_>
          5 16 3 4 2.</_></rects>
      <tilted>0</tilted></_>
    <_>
      <rects>
        <_>
          2 15 2 5 -1.</_>
        <_>
          3 15 1 5 2.</_></rects>
      <tilted>0</tilted></_>
    <_>
      <rects>
        <_>
          3 2 3 3 -1.</_>
        <_>
          3 3 3 1 3.</_></rects>
      <tilted>0</tilted></_>
    <_>
      <rects>
        <_>
          3 4 8 4 -1.</_>
        <_>
          3 4 4 2 2.</_>
        <_>
          7 6 4 2 2.</_></rects>
      <tilted>0</tilted></_>
    <_>
      <rects>
        <_>
          3 4 10 14 -1.</_>
        <_>
          8 4 5 14 2.</_></rects>
      <tilted>0</tilted></_>
    <_>
      <rects>
        <_>
          3 10 10 6 -1.</_>
        <_>
          3 10 5 3 2.</_>
        <_>
          8 13 5 3 2.</_></rects>
      <tilted>0</tilted></_>
    <_>
      <rects>
        <_>
          3 12 1 6 -1.</_>
        <_>
          3 14 1 2 3.</_></rects>
      <tilted>0</tilted></_>
    <_>
      <rects>
        <_>
          3 13 6 4 -1.</_>
        <_>
          3 13 3 2 2.</_>
        <_>
          6 15 3 2 2.</_></rects>
      <tilted>0</tilted></_>
    <_>
      <rects>
        <_>
          3 19 2 1 -1.</_>
        <_>
          4 19 1 1 2.</_></rects>
      <tilted>0</tilted></_>
    <_>
      <rects>
        <_>
          4 0 4 2 -1.</_>
        <_>
          4 0 2 1 2.</_>
        <_>
          6 1 2 1 2.</_></rects>
      <tilted>0</tilted></_>
    <_>
      <rects>
        <_>
          4 3 8 10 -1.</_>
        <_>
          4 3 4 5 2.</_>
        <_>
          8 8 4 5 2.</_></rects>
      <tilted>0</tilted></_>
    <_>
      <rects>
        <_>
          4 4 6 4 -1.</_>
        <_>
          4 4 3 2 2.</_>
        <_>
          7 6 3 2 2.</_></rects>
      <tilted>0</tilted></_>
    <_>
      <rects>
        <_>
          4 4 8 8 -1.</_>
        <_>
          4 4 4 4 2.</_>
        <_>
          8 8 4 4 2.</_></rects>
      <tilted>0</tilted></_>
    <_>
      <rects>
        <_>
          4 8 2 1 -1.</_>
        <_>
          5 8 1 1 2.</_></rects>
      <tilted>0</tilted></_>
    <_>
      <rects>
        <_>
          4 8 3 1 -1.</_>
        <_>
          5 8 1 1 3.</_></rects>
      <tilted>0</tilted></_>
    <_>
      <rects>
        <_>
          4 8 8 10 -1.</_>
        <_>
          4 8 4 5 2.</_>
        <_>
          8 13 4 5 2.</_></rects>
      <tilted>0</tilted></_>
    <_>
      <rects>
        <_>
          4 8 12 12 -1.</_>
        <_>
          4 12 12 4 3.</_></rects>
      <tilted>0</tilted></_>
    <_>
      <rects>
        <_>
          4 10 3 2 -1.</_>
        <_>
          5 10 1 2 3.</_></rects>
      <tilted>0</tilted></_>
    <_>
      <rects>
        <_>
          4 10 2 8 -1.</_>
        <_>
          4 10 1 4 2.</_>
        <_>
          5 14 1 4 2.</_></rects>
      <tilted>0</tilted></_>
    <_>
      <rects>
        <_>
          4 11 3 1 -1.</_>
        <_>
          5 11 1 1 3.</_></rects>
      <tilted>0</tilted></_>
    <_>
      <rects>
        <_>
          4 12 8 4 -1.</_>
        <_>
          4 12 4 2 2.</_>
        <_>
          8 14 4 2 2.</_></rects>
      <tilted>0</tilted></_>
    <_>
      <rects>
        <_>
          4 13 14 2 -1.</_>
        <_>
          4 13 7 1 2.</_>
        <_>
          11 14 7 1 2.</_></rects>
      <tilted>0</tilted></_>
    <_>
      <rects>
        <_>
          4 15 3 1 -1.</_>
        <_>
          5 15 1 1 3.</_></rects>
      <tilted>0</tilted></_>
    <_>
      <rects>
        <_>
          4 15 6 1 -1.</_>
        <_>
          6 15 2 1 3.</_></rects>
      <tilted>0</tilted></_>
    <_>
      <rects>
        <_>
          4 18 14 2 -1.</_>
        <_>
          4 18 7 1 2.</_>
        <_>
          11 19 7 1 2.</_></rects>
      <tilted>0</tilted></_>
    <_>
      <rects>
        <_>
          5 2 11 6 -1.</_>
        <_>
          5 5 11 3 2.</_></rects>
      <tilted>0</tilted></_>
    <_>
      <rects>
        <_>
          5 3 6 8 -1.</_>
        <_>
          5 3 3 4 2.</_>
        <_>
          8 7 3 4 2.</_></rects>
      <tilted>0</tilted></_>
    <_>
      <rects>
        <_>
          5 3 8 15 -1.</_>
        <_>
          5 8 8 5 3.</_></rects>
      <tilted>0</tilted></_>
    <_>
      <rects>
        <_>
          5 4 2 6 -1.</_>
        <_>
          5 4 1 3 2.</_>
        <_>
          6 7 1 3 2.</_></rects>
      <tilted>0</tilted></_>
    <_>
      <rects>
        <_>
          5 4 6 8 -1.</_>
        <_>
          5 4 3 4 2.</_>
        <_>
          8 8 3 4 2.</_></rects>
      <tilted>0</tilted></_>
    <_>
      <rects>
        <_>
          5 8 2 10 -1.</_>
        <_>
          5 8 1 5 2.</_>
        <_>
          6 13 1 5 2.</_></rects>
      <tilted>0</tilted></_>
    <_>
      <rects>
        <_>
          5 9 2 8 -1.</_>
        <_>
          5 9 1 4 2.</_>
        <_>
          6 13 1 4 2.</_></rects>
      <tilted>0</tilted></_>
    <_>
      <rects>
        <_>
          5 9 4 8 -1.</_>
        <_>
          5 9 2 4 2.</_>
        <_>
          7 13 2 4 2.</_></rects>
      <tilted>0</tilted></_>
    <_>
      <rects>
        <_>
          5 9 9 9 -1.</_>
        <_>
          8 9 3 9 3.</_></rects>
      <tilted>0</tilted></_>
    <_>
      <rects>
        <_>
          5 9 6 3 -1.</_>
        <_>
          5 10 6 1 3.</_></rects>
      <tilted>0</tilted></_>
    <_>
      <rects>
        <_>
          5 10 2 1 -1.</_>
        <_>
          6 10 1 1 2.</_></rects>
      <tilted>0</tilted></_>
    <_>
      <rects>
        <_>
          5 10 4 6 -1.</_>
        <_>
          5 10 2 3 2.</_>
        <_>
          7 13 2 3 2.</_></rects>
      <tilted>0</tilted></_>
    <_>
      <rects>
        <_>
          5 10 6 8 -1.</_>
        <_>
          5 10 3 4 2.</_>
        <_>
          8 14 3 4 2.</_></rects>
      <tilted>0</tilted></_>
    <_>
      <rects>
        <_>
          5 11 4 6 -1.</_>
        <_>
          5 11 2 3 2.</_>
        <_>
          7 14 2 3 2.</_></rects>
      <tilted>0</tilted></_>
    <_>
      <rects>
        <_>
          5 12 3 4 -1.</_>
        <_>
          6 12 1 4 3.</_></rects>
      <tilted>0</tilted></_>
    <_>
      <rects>
        <_>
          5 14 6 4 -1.</_>
        <_>
          5 14 3 2 2.</_>
        <_>
          8 16 3 2 2.</_></rects>
      <tilted>0</tilted></_>
    <_>
      <rects>
        <_>
          5 17 4 2 -1.</_>
        <_>
          5 17 2 1 2.</_>
        <_>
          7 18 2 1 2.</_></rects>
      <tilted>0</tilted></_>
    <_>
      <rects>
        <_>
          6 0 3 4 -1.</_>
        <_>
          7 0 1 4 3.</_></rects>
      <tilted>0</tilted></_>
    <_>
      <rects>
        <_>
          6 0 6 2 -1.</_>
        <_>
          6 0 3 1 2.</_>
        <_>
          9 1 3 1 2.</_></rects>
      <tilted>0</tilted></_>
    <_>
      <rects>
        <_>
          6 3 10 6 -1.</_>
        <_>
          6 5 10 2 3.</_></rects>
      <tilted>0</tilted></_>
    <_>
      <rects>
        <_>
          6 4 12 4 -1.</_>
        <_>
          6 4 6 2 2.</_>
        <_>
          12 6 6 2 2.</_></rects>
      <tilted>0</tilted></_>
    <_>
      <rects>
        <_>
          6 5 9 15 -1.</_>
        <_>
          9 5 3 15 3.</_></rects>
      <tilted>0</tilted></_>
    <_>
      <rects>
        <_>
          6 6 9 7 -1.</_>
        <_>
          9 6 3 7 3.</_></rects>
      <tilted>0</tilted></_>
    <_>
      <rects>
        <_>
          6 7 2 6 -1.</_>
        <_>
          6 7 1 3 2.</_>
        <_>
          7 10 1 3 2.</_></rects>
      <tilted>0</tilted></_>
    <_>
      <rects>
        <_>
          6 10 8 9 -1.</_>
        <_>
          6 13 8 3 3.</_></rects>
      <tilted>0</tilted></_>
    <_>
      <rects>
        <_>
          6 10 12 9 -1.</_>
        <_>
          6 13 12 3 3.</_></rects>
      <tilted>0</tilted></_>
    <_>
      <rects>
        <_>
          6 11 2 1 -1.</_>
        <_>
          7 11 1 1 2.</_></rects>
      <tilted>0</tilted></_>
    <_>
      <rects>
        <_>
          6 11 4 6 -1.</_>
        <_>
          8 11 2 6 2.</_></rects>
      <tilted>0</tilted></_>
    <_>
      <rects>
        <_>
          6 12 4 4 -1.</_>
        <_>
          6 12 2 2 2.</_>
        <_>
          8 14 2 2 2.</_></rects>
      <tilted>0</tilted></_>
    <_>
      <rects>
        <_>
          6 14 2 1 -1.</_>
        <_>
          7 14 1 1 2.</_></rects>
      <tilted>0</tilted></_>
    <_>
      <rects>
        <_>
          6 14 6 2 -1.</_>
        <_>
          6 14 3 1 2.</_>
        <_>
          9 15 3 1 2.</_></rects>
      <tilted>0</tilted></_>
    <_>
      <rects>
        <_>
          7 2 2 6 -1.</_>
        <_>
          7 4 2 2 3.</_></rects>
      <tilted>0</tilted></_>
    <_>
      <rects>
        <_>
          7 3 4 6 -1.</_>
        <_>
          7 5 4 2 3.</_></rects>
      <tilted>0</tilted></_>
    <_>
      <rects>
        <_>
          7 4 2 2 -1.</_>
        <_>
          8 4 1 2 2.</_></rects>
      <tilted>0</tilted></_>
    <_>
      <rects>
        <_>
          7 5 1 2 -1.</_>
        <_>
          7 6 1 1 2.</_></rects>
      <tilted>0</tilted></_>
    <_>
      <rects>
        <_>
          7 5 5 3 -1.</_>
        <_>
          7 6 5 1 3.</_></rects>
      <tilted>0</tilted></_>
    <_>
      <rects>
        <_>
          7 6 2 2 -1.</_>
        <_>
          7 6 1 1 2.</_>
        <_>
          8 7 1 1 2.</_></rects>
      <tilted>0</tilted></_>
    <_>
      <rects>
        <_>
          7 6 2 4 -1.</_>
        <_>
          7 6 1 2 2.</_>
        <_>
          8 8 1 2 2.</_></rects>
      <tilted>0</tilted></_>
    <_>
      <rects>
        <_>
          7 13 2 2 -1.</_>
        <_>
          7 13 1 1 2.</_>
        <_>
          8 14 1 1 2.</_></rects>
      <tilted>0</tilted></_>
    <_>
      <rects>
        <_>
          7 13 3 7 -1.</_>
        <_>
          8 13 1 7 3.</_></rects>
      <tilted>0</tilted></_>
    <_>
      <rects>
        <_>
          7 14 13 4 -1.</_>
        <_>
          7 16 13 2 2.</_></rects>
      <tilted>0</tilted></_>
    <_>
      <rects>
        <_>
          7 15 4 2 -1.</_>
        <_>
          7 15 2 1 2.</_>
        <_>
          9 16 2 1 2.</_></rects>
      <tilted>0</tilted></_>
    <_>
      <rects>
        <_>
          7 15 12 1 -1.</_>
        <_>
          11 15 4 1 3.</_></rects>
      <tilted>0</tilted></_>
    <_>
      <rects>
        <_>
          7 16 2 2 -1.</_>
        <_>
          8 16 1 2 2.</_></rects>
      <tilted>0</tilted></_>
    <_>
      <rects>
        <_>
          7 16 13 3 -1.</_>
        <_>
          7 17 13 1 3.</_></rects>
      <tilted>0</tilted></_>
    <_>
      <rects>
        <_>
          8 0 4 4 -1.</_>
        <_>
          8 0 2 2 2.</_>
        <_>
          10 2 2 2 2.</_></rects>
      <tilted>0</tilted></_>
    <_>
      <rects>
        <_>
          8 1 6 1 -1.</_>
        <_>
          10 1 2 1 3.</_></rects>
      <tilted>0</tilted></_>
    <_>
      <rects>
        <_>
          8 6 1 4 -1.</_>
        <_>
          8 8 1 2 2.</_></rects>
      <tilted>0</tilted></_>
    <_>
      <rects>
        <_>
          8 6 1 9 -1.</_>
        <_>
          8 9 1 3 3.</_></rects>
      <tilted>0</tilted></_>
    <_>
      <rects>
        <_>
          8 6 9 1 -1.</_>
        <_>
          11 6 3 1 3.</_></rects>
      <tilted>0</tilted></_>
    <_>
      <rects>
        <_>
          8 11 2 8 -1.</_>
        <_>
          8 11 1 4 2.</_>
        <_>
          9 15 1 4 2.</_></rects>
      <tilted>0</tilted></_>
    <_>
      <rects>
        <_>
          8 14 12 6 -1.</_>
        <_>
          8 14 6 3 2.</_>
        <_>
          14 17 6 3 2.</_></rects>
      <tilted>0</tilted></_>
    <_>
      <rects>
        <_>
          9 3 4 6 -1.</_>
        <_>
          9 5 4 2 3.</_></rects>
      <tilted>0</tilted></_>
    <_>
      <rects>
        <_>
          9 10 5 6 -1.</_>
        <_>
          9 13 5 3 2.</_></rects>
      <tilted>0</tilted></_>
    <_>
      <rects>
        <_>
          9 10 5 9 -1.</_>
        <_>
          9 13 5 3 3.</_></rects>
      <tilted>0</tilted></_>
    <_>
      <rects>
        <_>
          9 10 10 6 -1.</_>
        <_>
          9 10 5 3 2.</_>
        <_>
          14 13 5 3 2.</_></rects>
      <tilted>0</tilted></_>
    <_>
      <rects>
        <_>
          9 13 4 2 -1.</_>
        <_>
          9 14 4 1 2.</_></rects>
      <tilted>0</tilted></_>
    <_>
      <rects>
        <_>
          9 13 7 6 -1.</_>
        <_>
          9 15 7 2 3.</_></rects>
      <tilted>0</tilted></_>
    <_>
      <rects>
        <_>
          9 19 3 1 -1.</_>
        <_>
          10 19 1 1 3.</_></rects>
      <tilted>0</tilted></_>
    <_>
      <rects>
        <_>
          10 5 6 2 -1.</_>
        <_>
          10 5 3 1 2.</_>
        <_>
          13 6 3 1 2.</_></rects>
      <tilted>0</tilted></_>
    <_>
      <rects>
        <_>
          10 12 3 3 -1.</_>
        <_>
          11 12 1 3 3.</_></rects>
      <tilted>0</tilted></_>
    <_>
      <rects>
        <_>
          10 15 2 4 -1.</_>
        <_>
          10 17 2 2 2.</_></rects>
      <tilted>0</tilted></_>
    <_>
      <rects>
        <_>
          10 16 8 3 -1.</_>
        <_>
          10 17 8 1 3.</_></rects>
      <tilted>0</tilted></_>
    <_>
      <rects>
        <_>
          10 18 6 2 -1.</_>
        <_>
          10 18 3 1 2.</_>
        <_>
          13 19 3 1 2.</_></rects>
      <tilted>0</tilted></_>
    <_>
      <rects>
        <_>
          11 0 2 6 -1.</_>
        <_>
          11 3 2 3 2.</_></rects>
      <tilted>0</tilted></_>
    <_>
      <rects>
        <_>
          11 2 3 3 -1.</_>
        <_>
          12 2 1 3 3.</_></rects>
      <tilted>0</tilted></_>
    <_>
      <rects>
        <_>
          11 7 3 2 -1.</_>
        <_>
          12 7 1 2 3.</_></rects>
      <tilted>0</tilted></_>
    <_>
      <rects>
        <_>
          11 8 4 9 -1.</_>
        <_>
          11 11 4 3 3.</_></rects>
      <tilted>0</tilted></_>
    <_>
      <rects>
        <_>
          11 9 1 2 -1.</_>
        <_>
          11 10 1 1 2.</_></rects>
      <tilted>0</tilted></_>
    <_>
      <rects>
        <_>
          11 9 6 8 -1.</_>
        <_>
          11 9 3 4 2.</_>
        <_>
          14 13 3 4 2.</_></rects>
      <tilted>0</tilted></_>
    <_>
      <rects>
        <_>
          11 11 6 6 -1.</_>
        <_>
          11 11 3 3 2.</_>
        <_>
          14 14 3 3 2.</_></rects>
      <tilted>0</tilted></_>
    <_>
      <rects>
        <_>
          11 14 1 6 -1.</_>
        <_>
          11 17 1 3 2.</_></rects>
      <tilted>0</tilted></_>
    <_>
      <rects>
        <_>
          11 17 9 3 -1.</_>
        <_>
          14 17 3 3 3.</_></rects>
      <tilted>0</tilted></_>
    <_>
      <rects>
        <_>
          12 1 5 6 -1.</_>
        <_>
          12 4 5 3 2.</_></rects>
      <tilted>0</tilted></_>
    <_>
      <rects>
        <_>
          12 2 6 5 -1.</_>
        <_>
          15 2 3 5 2.</_></rects>
      <tilted>0</tilted></_>
    <_>
      <rects>
        <_>
          12 3 1 9 -1.</_>
        <_>
          12 6 1 3 3.</_></rects>
      <tilted>0</tilted></_>
    <_>
      <rects>
        <_>
          12 5 8 4 -1.</_>
        <_>
          12 5 4 2 2.</_>
        <_>
          16 7 4 2 2.</_></rects>
      <tilted>0</tilted></_>
    <_>
      <rects>
        <_>
          12 6 3 1 -1.</_>
        <_>
          13 6 1 1 3.</_></rects>
      <tilted>0</tilted></_>
    <_>
      <rects>
        <_>
          12 7 6 2 -1.</_>
        <_>
          14 7 2 2 3.</_></rects>
      <tilted>0</tilted></_>
    <_>
      <rects>
        <_>
          12 15 2 2 -1.</_>
        <_>
          12 15 1 1 2.</_>
        <_>
          13 16 1 1 2.</_></rects>
      <tilted>0</tilted></_>
    <_>
      <rects>
        <_>
          12 15 4 2 -1.</_>
        <_>
          12 15 2 1 2.</_>
        <_>
          14 16 2 1 2.</_></rects>
      <tilted>0</tilted></_>
    <_>
      <rects>
        <_>
          12 16 2 1 -1.</_>
        <_>
          13 16 1 1 2.</_></rects>
      <tilted>0</tilted></_>
    <_>
      <rects>
        <_>
          12 18 6 1 -1.</_>
        <_>
          14 18 2 1 3.</_></rects>
      <tilted>0</tilted></_>
    <_>
      <rects>
        <_>
          12 18 8 2 -1.</_>
        <_>
          12 18 4 1 2.</_>
        <_>
          16 19 4 1 2.</_></rects>
      <tilted>0</tilted></_>
    <_>
      <rects>
        <_>
          13 0 3 6 -1.</_>
        <_>
          14 0 1 6 3.</_></rects>
      <tilted>0</tilted></_>
    <_>
      <rects>
        <_>
          13 2 4 2 -1.</_>
        <_>
          13 2 2 1 2.</_>
        <_>
          15 3 2 1 2.</_></rects>
      <tilted>0</tilted></_>
    <_>
      <rects>
        <_>
          13 3 3 1 -1.</_>
        <_>
          14 3 1 1 3.</_></rects>
      <tilted>0</tilted></_>
    <_>
      <rects>
        <_>
          13 5 2 1 -1.</_>
        <_>
          14 5 1 1 2.</_></rects>
      <tilted>0</tilted></_>
    <_>
      <rects>
        <_>
          13 5 2 2 -1.</_>
        <_>
          14 5 1 2 2.</_></rects>
      <tilted>0</tilted></_>
    <_>
      <rects>
        <_>
          13 5 6 8 -1.</_>
        <_>
          13 9 6 4 2.</_></rects>
      <tilted>0</tilted></_>
    <_>
      <rects>
        <_>
          13 7 2 2 -1.</_>
        <_>
          13 7 1 1 2.</_>
        <_>
          14 8 1 1 2.</_></rects>
      <tilted>0</tilted></_>
    <_>
      <rects>
        <_>
          13 9 2 2 -1.</_>
        <_>
          14 9 1 2 2.</_></rects>
      <tilted>0</tilted></_>
    <_>
      <rects>
        <_>
          13 9 2 3 -1.</_>
        <_>
          13 10 2 1 3.</_></rects>
      <tilted>0</tilted></_>
    <_>
      <rects>
        <_>
          13 13 4 4 -1.</_>
        <_>
          13 13 2 2 2.</_>
        <_>
          15 15 2 2 2.</_></rects>
      <tilted>0</tilted></_>
    <_>
      <rects>
        <_>
          13 14 4 4 -1.</_>
        <_>
          13 14 2 2 2.</_>
        <_>
          15 16 2 2 2.</_></rects>
      <tilted>0</tilted></_>
    <_>
      <rects>
        <_>
          14 4 2 2 -1.</_>
        <_>
          15 4 1 2 2.</_></rects>
      <tilted>0</tilted></_>
    <_>
      <rects>
        <_>
          14 5 4 4 -1.</_>
        <_>
          14 5 2 2 2.</_>
        <_>
          16 7 2 2 2.</_></rects>
      <tilted>0</tilted></_>
    <_>
      <rects>
        <_>
          14 6 6 3 -1.</_>
        <_>
          14 7 6 1 3.</_></rects>
      <tilted>0</tilted></_>
    <_>
      <rects>
        <_>
          14 8 4 12 -1.</_>
        <_>
          16 8 2 12 2.</_></rects>
      <tilted>0</tilted></_>
    <_>
      <rects>
        <_>
          14 10 4 10 -1.</_>
        <_>
          16 10 2 10 2.</_></rects>
      <tilted>0</tilted></_>
    <_>
      <rects>
        <_>
          14 12 2 6 -1.</_>
        <_>
          14 12 1 3 2.</_>
        <_>
          15 15 1 3 2.</_></rects>
      <tilted>0</tilted></_>
    <_>
      <rects>
        <_>
          14 14 4 1 -1.</_>
        <_>
          16 14 2 1 2.</_></rects>
      <tilted>0</tilted></_>
    <_>
      <rects>
        <_>
          15 3 3 1 -1.</_>
        <_>
          16 3 1 1 3.</_></rects>
      <tilted>0</tilted></_>
    <_>
      <rects>
        <_>
          15 3 3 7 -1.</_>
        <_>
          16 3 1 7 3.</_></rects>
      <tilted>0</tilted></_>
    <_>
      <rects>
        <_>
          16 8 4 3 -1.</_>
        <_>
          16 9 4 1 3.</_></rects>
      <tilted>0</tilted></_>
    <_>
      <rects>
        <_>
          16 10 3 1 -1.</_>
        <_>
          17 10 1 1 3.</_></rects>
      <tilted>0</tilted></_>
    <_>
      <rects>
        <_>
          16 11 2 1 -1.</_>
        <_>
          17 11 1 1 2.</_></rects>
      <tilted>0</tilted></_>
    <_>
      <rects>
        <_>
          16 11 4 3 -1.</_>
        <_>
          16 12 4 1 3.</_></rects>
      <tilted>0</tilted></_>
    <_>
      <rects>
        <_>
          16 12 4 8 -1.</_>
        <_>
          16 16 4 4 2.</_></rects>
      <tilted>0</tilted></_>
    <_>
      <rects>
        <_>
          16 14 2 2 -1.</_>
        <_>
          17 14 1 2 2.</_></rects>
      <tilted>0</tilted></_>
    <_>
      <rects>
        <_>
          17 1 1 3 -1.</_>
        <_>
          17 2 1 1 3.</_></rects>
      <tilted>0</tilted></_>
    <_>
      <rects>
        <_>
          17 3 3 1 -1.</_>
        <_>
          18 3 1 1 3.</_></rects>
      <tilted>0</tilted></_>
    <_>
      <rects>
        <_>
          17 14 2 1 -1.</_>
        <_>
          18 14 1 1 2.</_></rects>
      <tilted>0</tilted></_>
    <_>
      <rects>
        <_>
          18 0 2 10 -1.</_>
        <_>
          19 0 1 10 2.</_></rects>
      <tilted>0</tilted></_>
    <_>
      <rects>
        <_>
          18 0 2 15 -1.</_>
        <_>
          19 0 1 15 2.</_></rects>
      <tilted>0</tilted></_>
    <_>
      <rects>
        <_>
          18 7 2 6 -1.</_>
        <_>
          18 9 2 2 3.</_></rects>
      <tilted>0</tilted></_>
    <_>
      <rects>
        <_>
          18 8 2 4 -1.</_>
        <_>
          19 8 1 4 2.</_></rects>
      <tilted>0</tilted></_>
    <_>
      <rects>
        <_>
          18 10 2 2 -1.</_>
        <_>
          18 10 1 1 2.</_>
        <_>
          19 11 1 1 2.</_></rects>
      <tilted>0</tilted></_></features></cascade>
</opencv_storage>
